digraph Tree {
node [shape=box, style="filled", color="black"] ;
0 [label="petal width (cm) <= 0.7\ngini = 0.659\nsamples = 75\nvalue = [20, 26, 29]\nclass = virginica", fillcolor="#f7f3fd"] ;
1 [label="gini = 0.0\nsamples = 20\nvalue = [20, 0, 0]\nclass = setosa", fillcolor="#e58139"] ;
0 -> 1 [labeldistance=2.5, labelangle=45, headlabel="True"] ;
2 [label="petal length (cm) <= 5.05\ngini = 0.499\nsamples = 55\nvalue = [0, 26, 29]\nclass = virginica", fillcolor="#f2ebfc"] ;
0 -> 2 [labeldistance=2.5, labelangle=-45, headlabel="False"] ;
3 [label="petal width (cm) <= 1.65\ngini = 0.271\nsamples = 31\nvalue = [0, 26, 5]\nclass = versicolor", fillcolor="#5fea99"] ;
2 -> 3 ;
4 [label="gini = 0.0\nsamples = 24\nvalue = [0, 24, 0]\nclass = versicolor", fillcolor="#39e581"] ;
3 -> 4 ;
5 [label="sepal width (cm) <= 3.1\ngini = 0.408\nsamples = 7\nvalue = [0, 2, 5]\nclass = virginica", fillcolor="#b388ef"] ;
3 -> 5 ;
6 [label="sepal length (cm) <= 6.45\ngini = 0.278\nsamples = 6\nvalue = [0, 1, 5]\nclass = virginica", fillcolor="#9a61ea"] ;
5 -> 6 ;
7 [label="gini = 0.0\nsamples = 5\nvalue = [0, 0, 5]\nclass = virginica", fillcolor="#8139e5"] ;
6 -> 7 ;
8 [label="gini = 0.0\nsamples = 1\nvalue = [0, 1, 0]\nclass = versicolor", fillcolor="#39e581"] ;
6 -> 8 ;
9 [label="gini = 0.0\nsamples = 1\nvalue = [0, 1, 0]\nclass = versicolor", fillcolor="#39e581"] ;
5 -> 9 ;
10 [label="gini = 0.0\nsamples = 24\nvalue = [0, 0, 24]\nclass = virginica", fillcolor="#8139e5"] ;
2 -> 10 ;
}